<?xml version="1.0"?>
<opencv_storage>
<stage12>
  <maxWeakCount>26</maxWeakCount>
  <stageThreshold>-1.2632489204406738e+00</stageThreshold>
  <weakClassifiers>
    <_>
      <internalNodes>
        0 -1 16975 -5.0900322198867798e-01</internalNodes>
      <leafValues>
        6.7712783813476562e-01 -4.0540540218353271e-01</leafValues></_>
    <_>
      <internalNodes>
        0 -1 115390 7.7343098819255829e-03</internalNodes>
      <leafValues>
        -3.1746295094490051e-01 4.9087095260620117e-01</leafValues></_>
    <_>
      <internalNodes>
        0 -1 90741 3.4873783588409424e-02</internalNodes>
      <leafValues>
        -3.6114713549613953e-01 3.2277464866638184e-01</leafValues></_>
    <_>
      <internalNodes>
        0 -1 5481 -1.8516568467020988e-02</internalNodes>
      <leafValues>
        2.2090898454189301e-01 -5.2182513475418091e-01</leafValues></_>
    <_>
      <internalNodes>
        0 -1 190223 1.0982917156070471e-03</internalNodes>
      <leafValues>
        -3.5005366802215576e-01 2.3813833296298981e-01</leafValues></_>
    <_>
      <internalNodes>
        0 -1 124643 2.0740525797009468e-03</internalNodes>
      <leafValues>
        -2.4435456097126007e-01 3.1510514020919800e-01</leafValues></_>
    <_>
      <internalNodes>
        0 -1 47242 -5.3749061189591885e-03</internalNodes>
      <leafValues>
        5.1058810949325562e-01 -2.0357263088226318e-01</leafValues></_>
    <_>
      <internalNodes>
        0 -1 5963 1.3494650833308697e-02</internalNodes>
      <leafValues>
        -1.2559568881988525e-01 4.8827078938484192e-01</leafValues></_>
    <_>
      <internalNodes>
        0 -1 28619 -1.2115759775042534e-02</internalNodes>
      <leafValues>
        4.2057177424430847e-01 -1.9720962643623352e-01</leafValues></_>
    <_>
      <internalNodes>
        0 -1 185618 -6.6026597050949931e-04</internalNodes>
      <leafValues>
        2.2780814766883850e-01 -3.0760133266448975e-01</leafValues></_>
    <_>
      <internalNodes>
        0 -1 26323 -3.4943059086799622e-02</internalNodes>
      <leafValues>
        4.0831381082534790e-01 -1.9565844535827637e-01</leafValues></_>
    <_>
      <internalNodes>
        0 -1 61498 3.6029838956892490e-03</internalNodes>
      <leafValues>
        -1.8047589063644409e-01 3.6792638897895813e-01</leafValues></_>
    <_>
      <internalNodes>
        0 -1 147555 -1.5255209058523178e-02</internalNodes>
      <leafValues>
        -5.1854836940765381e-01 1.2104434520006180e-01</leafValues></_>
    <_>
      <internalNodes>
        0 -1 9425 -3.5116481012664735e-04</internalNodes>
      <leafValues>
        2.2495701909065247e-01 -2.7446517348289490e-01</leafValues></_>
    <_>
      <internalNodes>
        0 -1 145859 3.2578923855908215e-04</internalNodes>
      <leafValues>
        -2.5855585932731628e-01 2.3554310202598572e-01</leafValues></_>
    <_>
      <internalNodes>
        0 -1 136618 -1.6993727535009384e-02</internalNodes>
      <leafValues>
        -7.0313817262649536e-01 6.7901909351348877e-02</leafValues></_>
    <_>
      <internalNodes>
        0 -1 159263 4.8253477871185169e-05</internalNodes>
      <leafValues>
        -2.1204553544521332e-01 2.7062895894050598e-01</leafValues></_>
    <_>
      <internalNodes>
        0 -1 53510 -2.1687638945877552e-03</internalNodes>
      <leafValues>
        3.1186401844024658e-01 -1.4871157705783844e-01</leafValues></_>
    <_>
      <internalNodes>
        0 -1 14643 -7.8941900283098221e-03</internalNodes>
      <leafValues>
        -5.5018454790115356e-01 9.3729719519615173e-02</leafValues></_>
    <_>
      <internalNodes>
        0 -1 74745 -5.5122904479503632e-02</internalNodes>
      <leafValues>
        -8.0369758605957031e-01 5.5073488503694534e-02</leafValues></_>
    <_>
      <internalNodes>
        0 -1 148927 1.1305022984743118e-02</internalNodes>
      <leafValues>
        6.3734568655490875e-02 -6.9751471281051636e-01</leafValues></_>
    <_>
      <internalNodes>
        0 -1 9402 -9.2001602053642273e-02</internalNodes>
      <leafValues>
        -8.2393246889114380e-01 4.2466238141059875e-02</leafValues></_>
    <_>
      <internalNodes>
        0 -1 159905 -2.8931263834238052e-02</internalNodes>
      <leafValues>
        -6.7447376251220703e-01 5.7008739560842514e-02</leafValues></_>
    <_>
      <internalNodes>
        0 -1 152381 -3.9313741581281647e-05</internalNodes>
      <leafValues>
        2.3176160454750061e-01 -1.9828160107135773e-01</leafValues></_>
    <_>
      <internalNodes>
        0 -1 152147 -6.7933433456346393e-05</internalNodes>
      <leafValues>
        2.4907937645912170e-01 -1.8656900525093079e-01</leafValues></_>
    <_>
      <internalNodes>
        0 -1 177809 2.5392306270077825e-04</internalNodes>
      <leafValues>
        -1.6132242977619171e-01 2.7563914656639099e-01</leafValues></_></weakClassifiers></stage12>
</opencv_storage>
