<?xml version="1.0"?>
<opencv_storage>
<stage15>
  <maxWeakCount>36</maxWeakCount>
  <stageThreshold>-1.2268468141555786e+00</stageThreshold>
  <weakClassifiers>
    <_>
      <internalNodes>
        0 -1 172775 1.6794132068753242e-02</internalNodes>
      <leafValues>
        -2.5844642519950867e-01 5.7338643074035645e-01</leafValues></_>
    <_>
      <internalNodes>
        0 -1 1178 -4.2311698198318481e-03</internalNodes>
      <leafValues>
        4.3087589740753174e-01 -3.6512932181358337e-01</leafValues></_>
    <_>
      <internalNodes>
        0 -1 145356 6.8420497700572014e-03</internalNodes>
      <leafValues>
        -4.6742931008338928e-01 2.5932547450065613e-01</leafValues></_>
    <_>
      <internalNodes>
        0 -1 32748 1.6189427115023136e-03</internalNodes>
      <leafValues>
        -3.7339633703231812e-01 2.9800984263420105e-01</leafValues></_>
    <_>
      <internalNodes>
        0 -1 5493 -1.9070960581302643e-02</internalNodes>
      <leafValues>
        1.6946300864219666e-01 -4.5106244087219238e-01</leafValues></_>
    <_>
      <internalNodes>
        0 -1 1182 -1.3061023782938719e-03</internalNodes>
      <leafValues>
        1.8332768976688385e-01 -3.8607367873191833e-01</leafValues></_>
    <_>
      <internalNodes>
        0 -1 189061 -5.1957322284579277e-04</internalNodes>
      <leafValues>
        2.7423307299613953e-01 -2.3601888120174408e-01</leafValues></_>
    <_>
      <internalNodes>
        0 -1 134011 8.5081861470825970e-05</internalNodes>
      <leafValues>
        -2.3696263134479523e-01 2.7512204647064209e-01</leafValues></_>
    <_>
      <internalNodes>
        0 -1 170897 -1.2365964357741177e-04</internalNodes>
      <leafValues>
        -3.7811654806137085e-01 1.8617704510688782e-01</leafValues></_>
    <_>
      <internalNodes>
        0 -1 137720 -2.9502124525606632e-03</internalNodes>
      <leafValues>
        -7.2713547945022583e-01 4.2347125709056854e-02</leafValues></_>
    <_>
      <internalNodes>
        0 -1 170897 9.2218906502239406e-06</internalNodes>
      <leafValues>
        1.4090158045291901e-01 -3.4307122230529785e-01</leafValues></_>
    <_>
      <internalNodes>
        0 -1 156336 -2.1073944866657257e-02</internalNodes>
      <leafValues>
        -4.9183383584022522e-01 9.7754016518592834e-02</leafValues></_>
    <_>
      <internalNodes>
        0 -1 123541 -7.5461901724338531e-03</internalNodes>
      <leafValues>
        5.2500170469284058e-01 -9.5038540661334991e-02</leafValues></_>
    <_>
      <internalNodes>
        0 -1 3275 1.3632387854158878e-02</internalNodes>
      <leafValues>
        -1.2837477028369904e-01 3.8883680105209351e-01</leafValues></_>
    <_>
      <internalNodes>
        0 -1 203 -2.6617746800184250e-02</internalNodes>
      <leafValues>
        3.0764496326446533e-01 -1.6726921498775482e-01</leafValues></_>
    <_>
      <internalNodes>
        0 -1 69267 -7.1453109383583069e-02</internalNodes>
      <leafValues>
        1.9979511201381683e-01 -2.5600662827491760e-01</leafValues></_>
    <_>
      <internalNodes>
        0 -1 189185 2.9558493406511843e-04</internalNodes>
      <leafValues>
        -1.5107126533985138e-01 3.1584596633911133e-01</leafValues></_>
    <_>
      <internalNodes>
        0 -1 128180 -2.8569274945766665e-05</internalNodes>
      <leafValues>
        1.9702413678169250e-01 -2.1171304583549500e-01</leafValues></_>
    <_>
      <internalNodes>
        0 -1 83966 -5.3101694211363792e-03</internalNodes>
      <leafValues>
        3.9971393346786499e-01 -1.0356336832046509e-01</leafValues></_>
    <_>
      <internalNodes>
        0 -1 124437 6.3179561402648687e-04</internalNodes>
      <leafValues>
        -1.9241403043270111e-01 2.9090723395347595e-01</leafValues></_>
    <_>
      <internalNodes>
        0 -1 179493 -5.5196134780999273e-05</internalNodes>
      <leafValues>
        -3.1587097048759460e-01 1.3087414205074310e-01</leafValues></_>
    <_>
      <internalNodes>
        0 -1 90882 1.2019066140055656e-02</internalNodes>
      <leafValues>
        -9.5348387956619263e-02 4.4415736198425293e-01</leafValues></_>
    <_>
      <internalNodes>
        0 -1 28853 4.3065296486020088e-03</internalNodes>
      <leafValues>
        -1.2451263517141342e-01 3.7636217474937439e-01</leafValues></_>
    <_>
      <internalNodes>
        0 -1 175326 1.1448536068201065e-02</internalNodes>
      <leafValues>
        -8.3901152014732361e-02 4.3944099545478821e-01</leafValues></_>
    <_>
      <internalNodes>
        0 -1 47465 -7.2294265031814575e-02</internalNodes>
      <leafValues>
        1.8046350777149200e-01 -2.2636002302169800e-01</leafValues></_>
    <_>
      <internalNodes>
        0 -1 14223 7.0045953616499901e-03</internalNodes>
      <leafValues>
        -8.9546076953411102e-02 5.0327700376510620e-01</leafValues></_>
    <_>
      <internalNodes>
        0 -1 61374 -3.5424097441136837e-03</internalNodes>
      <leafValues>
        4.2730754613876343e-01 -8.3965957164764404e-02</leafValues></_>
    <_>
      <internalNodes>
        0 -1 143948 4.9038142897188663e-03</internalNodes>
      <leafValues>
        5.2769277244806290e-02 -7.6392072439193726e-01</leafValues></_>
    <_>
      <internalNodes>
        0 -1 190646 4.9164547817781568e-05</internalNodes>
      <leafValues>
        -1.8348668515682220e-01 2.0879727602005005e-01</leafValues></_>
    <_>
      <internalNodes>
        0 -1 177663 1.4191013178788126e-04</internalNodes>
      <leafValues>
        -1.8463231623172760e-01 2.3446568846702576e-01</leafValues></_>
    <_>
      <internalNodes>
        0 -1 175982 1.1952577915508300e-04</internalNodes>
      <leafValues>
        1.3319206237792969e-01 -2.8241157531738281e-01</leafValues></_>
    <_>
      <internalNodes>
        0 -1 184549 1.1227879440411925e-04</internalNodes>
      <leafValues>
        -1.7085230350494385e-01 2.2045402228832245e-01</leafValues></_>
    <_>
      <internalNodes>
        0 -1 98358 -3.9241068065166473e-02</internalNodes>
      <leafValues>
        -6.9185578823089600e-01 6.5186269581317902e-02</leafValues></_>
    <_>
      <internalNodes>
        0 -1 143248 -9.5239076763391495e-03</internalNodes>
      <leafValues>
        -7.7200067043304443e-01 3.9424847811460495e-02</leafValues></_>
    <_>
      <internalNodes>
        0 -1 146711 9.0082408860325813e-04</internalNodes>
      <leafValues>
        -2.5731718540191650e-01 1.4148223400115967e-01</leafValues></_>
    <_>
      <internalNodes>
        0 -1 10186 9.0735536068677902e-03</internalNodes>
      <leafValues>
        -2.1019601821899414e-01 1.9234631955623627e-01</leafValues></_></weakClassifiers></stage15>
</opencv_storage>
