<?xml version="1.0"?>
<opencv_storage>
<stage3>
  <maxWeakCount>10</maxWeakCount>
  <stageThreshold>-1.3212865591049194e+00</stageThreshold>
  <weakClassifiers>
    <_>
      <internalNodes>
        0 -1 30305 -3.7039333581924438e-01</internalNodes>
      <leafValues>
        7.7294987440109253e-01 -5.3381222486495972e-01</leafValues></_>
    <_>
      <internalNodes>
        0 -1 165178 1.1498444946482778e-03</internalNodes>
      <leafValues>
        -4.7088196873664856e-01 6.2297815084457397e-01</leafValues></_>
    <_>
      <internalNodes>
        0 -1 10109 -1.4504842692986131e-04</internalNodes>
      <leafValues>
        4.7346964478492737e-01 -4.1817241907119751e-01</leafValues></_>
    <_>
      <internalNodes>
        0 -1 96573 -1.1052486300468445e-01</internalNodes>
      <leafValues>
        -8.5912126302719116e-01 2.1220727264881134e-01</leafValues></_>
    <_>
      <internalNodes>
        0 -1 6453 -3.7668053060770035e-02</internalNodes>
      <leafValues>
        5.5014240741729736e-01 -3.6791789531707764e-01</leafValues></_>
    <_>
      <internalNodes>
        0 -1 150240 8.4575805813074112e-03</internalNodes>
      <leafValues>
        1.9067296385765076e-01 -8.2513475418090820e-01</leafValues></_>
    <_>
      <internalNodes>
        0 -1 141536 7.6193567365407944e-03</internalNodes>
      <leafValues>
        1.7556114494800568e-01 -8.4134215116500854e-01</leafValues></_>
    <_>
      <internalNodes>
        0 -1 156216 7.4565280228853226e-03</internalNodes>
      <leafValues>
        1.0693489760160446e-01 -7.7890497446060181e-01</leafValues></_>
    <_>
      <internalNodes>
        0 -1 132958 -9.0813991846516728e-05</internalNodes>
      <leafValues>
        3.2892102003097534e-01 -3.7816587090492249e-01</leafValues></_>
    <_>
      <internalNodes>
        0 -1 73330 1.6010820865631104e-01</internalNodes>
      <leafValues>
        1.6228751838207245e-01 -8.4007513523101807e-01</leafValues></_></weakClassifiers></stage3>
</opencv_storage>
